<?xml version="1.0"?>
<opencv_storage>
<cascade>
  <stageType>BOOST</stageType>
  <featureType>HOG</featureType>
  <height>44</height>
  <width>44</width>
  <stageParams>
    <boostType>GAB</boostType>
    <minHitRate>9.9500000476837158e-01</minHitRate>
    <maxFalseAlarm>5.0000000000000000e-01</maxFalseAlarm>
    <weightTrimRate>9.4999999999999996e-01</weightTrimRate>
    <maxDepth>1</maxDepth>
    <maxWeakCount>100</maxWeakCount></stageParams>
  <featureParams>
    <maxCatCount>0</maxCatCount>
    <featSize>36</featSize></featureParams>
  <stageNum>9</stageNum>
  <stages>
    <!-- stage 0 -->
    <_>
      <maxWeakCount>2</maxWeakCount>
      <stageThreshold>1.9064133986830711e-02</stageThreshold>
      <weakClassifiers>
        <_>
          <internalNodes>
            0 -1 10 1.5281480737030506e-02</internalNodes>
          <leafValues>
            -9.6153843402862549e-01 1.</leafValues></_>
        <_>
          <internalNodes>
            0 -1 14 2.2796064615249634e-02</internalNodes>
          <leafValues>
            -1. 9.8060262203216553e-01</leafValues></_></weakClassifiers></_>
    <!-- stage 1 -->
    <_>
      <maxWeakCount>1</maxWeakCount>
      <stageThreshold>1.</stageThreshold>
      <weakClassifiers>
        <_>
          <internalNodes>
            0 -1 4 1.5952077228575945e-03</internalNodes>
          <leafValues>
            1. -1.</leafValues></_></weakClassifiers></_>
    <!-- stage 2 -->
    <_>
      <maxWeakCount>2</maxWeakCount>
      <stageThreshold>7.5471699237823486e-02</stageThreshold>
      <weakClassifiers>
        <_>
          <internalNodes>
            0 -1 7 1.0928220581263304e-03</internalNodes>
          <leafValues>
            1. -9.2452830076217651e-01</leafValues></_>
        <_>
          <internalNodes>
            0 -1 8 1.0612548794597387e-03</internalNodes>
          <leafValues>
            1. -8.6440223455429077e-01</leafValues></_></weakClassifiers></_>
    <!-- stage 3 -->
    <_>
      <maxWeakCount>2</maxWeakCount>
      <stageThreshold>-5.6116696447134018e-02</stageThreshold>
      <weakClassifiers>
        <_>
          <internalNodes>
            0 -1 0 5.4808191634947434e-05</internalNodes>
          <leafValues>
            8.8349515199661255e-01 -8.7500000000000000e-01</leafValues></_>
        <_>
          <internalNodes>
            0 -1 11 1.7190365120768547e-02</internalNodes>
          <leafValues>
            -9.1713774204254150e-01 8.1888329982757568e-01</leafValues></_></weakClassifiers></_>
    <!-- stage 4 -->
    <_>
      <maxWeakCount>2</maxWeakCount>
      <stageThreshold>-3.8605973124504089e-02</stageThreshold>
      <weakClassifiers>
        <_>
          <internalNodes>
            0 -1 12 2.9034223407506943e-03</internalNodes>
          <leafValues>
            9.0291261672973633e-01 -9.1666668653488159e-01</leafValues></_>
        <_>
          <internalNodes>
            0 -1 5 2.6123339775949717e-03</internalNodes>
          <leafValues>
            8.7806069850921631e-01 -8.9024889469146729e-01</leafValues></_></weakClassifiers></_>
    <!-- stage 5 -->
    <_>
      <maxWeakCount>1</maxWeakCount>
      <stageThreshold>8.6915886402130127e-01</stageThreshold>
      <weakClassifiers>
        <_>
          <internalNodes>
            0 -1 9 6.7481666803359985e-02</internalNodes>
          <leafValues>
            8.6915886402130127e-01 -1.</leafValues></_></weakClassifiers></_>
    <!-- stage 6 -->
    <_>
      <maxWeakCount>2</maxWeakCount>
      <stageThreshold>4.0816325694322586e-02</stageThreshold>
      <weakClassifiers>
        <_>
          <internalNodes>
            0 -1 3 1.0875070001929998e-03</internalNodes>
          <leafValues>
            9.4117647409439087e-01 -9.5918369293212891e-01</leafValues></_>
        <_>
          <internalNodes>
            0 -1 6 2.4251483846455812e-03</internalNodes>
          <leafValues>
            1. -7.8623974323272705e-01</leafValues></_></weakClassifiers></_>
    <!-- stage 7 -->
    <_>
      <maxWeakCount>2</maxWeakCount>
      <stageThreshold>-2.6776600629091263e-02</stageThreshold>
      <weakClassifiers>
        <_>
          <internalNodes>
            0 -1 13 1.2217628769576550e-02</internalNodes>
          <leafValues>
            -9.0697675943374634e-01 8.1481480598449707e-01</leafValues></_>
        <_>
          <internalNodes>
            0 -1 1 1.0378914885222912e-03</internalNodes>
          <leafValues>
            8.8020014762878418e-01 -8.0225515365600586e-01</leafValues></_></weakClassifiers></_>
    <!-- stage 8 -->
    <_>
      <maxWeakCount>1</maxWeakCount>
      <stageThreshold>8.3486241102218628e-01</stageThreshold>
      <weakClassifiers>
        <_>
          <internalNodes>
            0 -1 2 7.1422941982746124e-03</internalNodes>
          <leafValues>
            8.3486241102218628e-01 -1.</leafValues></_></weakClassifiers></_></stages>
  <features>
    <_>
      <rect>
        0 8 8 8 22</rect></_>
    <_>
      <rect>
        0 28 8 8 19</rect></_>
    <_>
      <rect>
        24 20 8 8 32</rect></_>
    <_>
      <rect>
        28 4 8 8 34</rect></_>
    <_>
      <rect>
        28 8 8 8 31</rect></_>
    <_>
      <rect>
        28 20 8 8 31</rect></_>
    <_>
      <rect>
        28 28 8 8 27</rect></_>
    <_>
      <rect>
        0 4 8 16 25</rect></_>
    <_>
      <rect>
        0 12 8 16 2</rect></_>
    <_>
      <rect>
        12 0 8 16 35</rect></_>
    <_>
      <rect>
        12 4 8 16 33</rect></_>
    <_>
      <rect>
        24 12 8 16 5</rect></_>
    <_>
      <rect>
        28 12 8 16 32</rect></_>
    <_>
      <rect>
        0 0 16 8 30</rect></_>
    <_>
      <rect>
        12 12 16 8 24</rect></_></features></cascade>
</opencv_storage>
